FANN_FLO_2.1
num_layers=3
learning_rate=0.700000
connection_rate=1.000000
network_type=0
learning_momentum=0.000000
training_algorithm=2
train_error_function=1
train_stop_function=0
cascade_output_change_fraction=0.010000
quickprop_decay=-0.000100
quickprop_mu=1.750000
rprop_increase_factor=1.200000
rprop_decrease_factor=0.500000
rprop_delta_min=0.000000
rprop_delta_max=50.000000
rprop_delta_zero=0.100000
cascade_output_stagnation_epochs=12
cascade_candidate_change_fraction=0.010000
cascade_candidate_stagnation_epochs=12
cascade_max_out_epochs=150
cascade_min_out_epochs=50
cascade_max_cand_epochs=150
cascade_min_cand_epochs=50
cascade_num_candidate_groups=2
bit_fail_limit=3.49999994039535522461e-01
cascade_candidate_limit=1.00000000000000000000e+03
cascade_weight_multiplier=4.00000005960464477539e-01
cascade_activation_functions_count=10
cascade_activation_functions=3 5 7 8 10 11 14 15 16 17 
cascade_activation_steepnesses_count=4
cascade_activation_steepnesses=2.50000000000000000000e-01 5.00000000000000000000e-01 7.50000000000000000000e-01 1.00000000000000000000e+00 
layer_sizes=27 14 3 
scale_included=0
neurons (num_inputs, activation_function, activation_steepness)=(0, 0, 0.00000000000000000000e+00) (0, 0, 0.00000000000000000000e+00) (0, 0, 0.00000000000000000000e+00) (0, 0, 0.00000000000000000000e+00) (0, 0, 0.00000000000000000000e+00) (0, 0, 0.00000000000000000000e+00) (0, 0, 0.00000000000000000000e+00) (0, 0, 0.00000000000000000000e+00) (0, 0, 0.00000000000000000000e+00) (0, 0, 0.00000000000000000000e+00) (0, 0, 0.00000000000000000000e+00) (0, 0, 0.00000000000000000000e+00) (0, 0, 0.00000000000000000000e+00) (0, 0, 0.00000000000000000000e+00) (0, 0, 0.00000000000000000000e+00) (0, 0, 0.00000000000000000000e+00) (0, 0, 0.00000000000000000000e+00) (0, 0, 0.00000000000000000000e+00) (0, 0, 0.00000000000000000000e+00) (0, 0, 0.00000000000000000000e+00) (0, 0, 0.00000000000000000000e+00) (0, 0, 0.00000000000000000000e+00) (0, 0, 0.00000000000000000000e+00) (0, 0, 0.00000000000000000000e+00) (0, 0, 0.00000000000000000000e+00) (0, 0, 0.00000000000000000000e+00) (0, 0, 0.00000000000000000000e+00) (27, 4, 5.00000000000000000000e-01) (27, 4, 5.00000000000000000000e-01) (27, 4, 5.00000000000000000000e-01) (27, 4, 5.00000000000000000000e-01) (27, 4, 5.00000000000000000000e-01) (27, 4, 5.00000000000000000000e-01) (27, 4, 5.00000000000000000000e-01) (27, 4, 5.00000000000000000000e-01) (27, 4, 5.00000000000000000000e-01) (27, 4, 5.00000000000000000000e-01) (27, 4, 5.00000000000000000000e-01) (27, 4, 5.00000000000000000000e-01) (27, 4, 5.00000000000000000000e-01) (0, 0, 0.00000000000000000000e+00) (14, 4, 5.00000000000000000000e-01) (14, 4, 5.00000000000000000000e-01) (0, 0, 0.00000000000000000000e+00) 
connections (connected_to_neuron, weight)=(0, 6.63976621627807617188e+00) (1, 3.23859739303588867188e+00) (2, 6.55538606643676757812e+00) (3, 1.62694096565246582031e+00) (4, 4.65473473072052001953e-01) (5, -2.59650325775146484375e+01) (6, -3.08798909187316894531e+00) (7, -2.58792858123779296875e+01) (8, 4.09430563449859619141e-01) (9, 1.67290267944335937500e+01) (10, -2.59464473724365234375e+01) (11, 6.47564125061035156250e+00) (12, 5.81359922885894775391e-01) (13, 4.50679540634155273438e-01) (14, 1.54473304748535156250e+00) (15, 6.60751581192016601562e+00) (16, 1.67672233581542968750e+01) (17, 1.65228056907653808594e+00) (18, 1.48805475234985351562e+00) (19, -7.64707708358764648438e+00) (20, 6.53605604171752929688e+00) (21, 1.50000929832458496094e+00) (22, -2.59016780853271484375e+01) (23, 6.50616121292114257812e+00) (24, -1.53258991241455078125e+01) (25, 1.66313743591308593750e+01) (26, 6.39726221561431884766e-01) (0, -7.05982112884521484375e+00) (1, -3.38060522079467773438e+00) (2, -7.15921401977539062500e+00) (3, -3.35076403617858886719e+00) (4, -2.15796828269958496094e-01) (5, 6.89709854125976562500e+00) (6, 6.79513025283813476562e+00) (7, 6.74201726913452148438e+00) (8, 3.33341002464294433594e+00) (9, -4.41382741928100585938e+00) (10, 6.73473024368286132812e+00) (11, -7.06261920928955078125e+00) (12, -2.37298011779785156250e-01) (13, -7.26651668548583984375e-01) (14, -1.50519800186157226562e+00) (15, -7.13517093658447265625e+00) (16, -4.35076045989990234375e+00) (17, -3.27291226387023925781e+00) (18, -1.54252779483795166016e+00) (19, 6.76254940032958984375e+00) (20, -7.02278995513916015625e+00) (21, -1.54724001884460449219e+00) (22, 6.79361152648925781250e+00) (23, -7.10395908355712890625e+00) (24, 6.92631006240844726562e+00) (25, -4.32865810394287109375e+00) (26, 1.17435026168823242188e+00) (0, -3.08492517471313476562e+00) (1, -3.02205300331115722656e+00) (2, -3.11892962455749511719e+00) (3, -3.08817791938781738281e+00) (4, -5.06027102470397949219e-01) (5, 6.67959785461425781250e+00) (6, 6.66122961044311523438e+00) (7, 6.71961116790771484375e+00) (8, 4.24545145034790039062e+00) (9, -4.27652978897094726562e+00) (10, 6.70836973190307617188e+00) (11, -2.99936342239379882812e+00) (12, -5.12397170066833496094e-01) (13, -6.13895595073699951172e-01) (14, -6.05787277221679687500e+00) (15, -3.00462937355041503906e+00) (16, -4.15323305130004882812e+00) (17, -7.09001636505126953125e+00) (18, -2.48689484596252441406e+00) (19, 6.79079914093017578125e+00) (20, -2.96027803421020507812e+00) (21, -2.51617884635925292969e+00) (22, 6.71648502349853515625e+00) (23, -3.12650036811828613281e+00) (24, 6.61493444442749023438e+00) (25, -4.26862764358520507812e+00) (26, 1.08309090137481689453e+00) (0, -7.09539699554443359375e+00) (1, -3.41500377655029296875e+00) (2, -6.99778938293457031250e+00) (3, -3.39946651458740234375e+00) (4, -1.28485992550849914551e-01) (5, 6.81117868423461914062e+00) (6, 6.66073656082153320312e+00) (7, 6.84255838394165039062e+00) (8, 2.89285922050476074219e+00) (9, -4.30892324447631835938e+00) (10, 6.89741611480712890625e+00) (11, -7.15709590911865234375e+00) (12, -1.57203510403633117676e-01) (13, -9.48982313275337219238e-03) (14, -1.38013923168182373047e+00) (15, -6.99923324584960937500e+00) (16, -4.43068075180053710938e+00) (17, -1.62550926208496093750e+00) (18, -1.33077096939086914062e+00) (19, 6.73670816421508789062e+00) (20, -6.98393154144287109375e+00) (21, -1.30544674396514892578e+00) (22, 6.74662685394287109375e+00) (23, -6.99950408935546875000e+00) (24, 6.76793813705444335938e+00) (25, -4.36042404174804687500e+00) (26, 8.23552072048187255859e-01) (0, -3.27943015098571777344e+00) (1, -2.75718259811401367188e+00) (2, -3.32881617546081542969e+00) (3, -2.37106490135192871094e+00) (4, -1.39816775918006896973e-01) (5, 2.90579843521118164062e+00) (6, 2.53435063362121582031e+00) (7, 2.76889681816101074219e+00) (8, -4.79135401546955108643e-02) (9, -1.65627646446228027344e+00) (10, 2.82326149940490722656e+00) (11, -7.04306221008300781250e+00) (12, -2.48667255043983459473e-01) (13, -2.52362251281738281250e-01) (14, -1.24081611633300781250e+00) (15, -3.43542098999023437500e+00) (16, -1.71307539939880371094e+00) (17, -2.31220746040344238281e+00) (18, -8.04805636405944824219e-01) (19, 2.53384232521057128906e+00) (20, -5.27413320541381835938e+00) (21, -1.17058420181274414062e+00) (22, 2.87846159934997558594e+00) (23, -7.14642047882080078125e+00) (24, 2.92047858238220214844e+00) (25, -1.63686871528625488281e+00) (26, -2.57637500762939453125e-01) (0, -7.04138755798339843750e+00) (1, -7.10273933410644531250e+00) (2, -7.05247497558593750000e+00) (3, -3.42817306518554687500e+00) (4, 1.01340994238853454590e-01) (5, 6.61166715621948242188e+00) (6, 6.73663949966430664062e+00) (7, 6.67261838912963867188e+00) (8, 2.95774579048156738281e+00) (9, -4.36280918121337890625e+00) (10, 6.67961549758911132812e+00) (11, -6.99891281127929687500e+00) (12, -1.69120654463768005371e-01) (13, -5.07135272026062011719e-01) (14, -1.63310980796813964844e+00) (15, -7.15308856964111328125e+00) (16, -4.14488029479980468750e+00) (17, -3.42003369331359863281e+00) (18, -1.37943029403686523438e+00) (19, 6.76941347122192382812e+00) (20, -7.11691665649414062500e+00) (21, -1.65895771980285644531e+00) (22, 6.69564056396484375000e+00) (23, -7.11042785644531250000e+00) (24, 6.71198844909667968750e+00) (25, -4.24151420593261718750e+00) (26, 1.18669772148132324219e+00) (0, -7.04080295562744140625e+00) (1, -3.42731142044067382812e+00) (2, -7.08551597595214843750e+00) (3, -3.26676225662231445312e+00) (4, -2.81102597713470458984e-01) (5, 6.76435136795043945312e+00) (6, 6.70388031005859375000e+00) (7, 6.76987409591674804688e+00) (8, 5.23050594329833984375e+00) (9, -1.07384300231933593750e+01) (10, 6.70014190673828125000e+00) (11, -7.11431503295898437500e+00) (12, -3.58676850795745849609e-01) (13, -2.61674582958221435547e-01) (14, -1.53616750240325927734e+00) (15, -7.12844085693359375000e+00) (16, -4.37906551361083984375e+00) (17, -1.57351958751678466797e+00) (18, -1.58843326568603515625e+00) (19, 6.68384933471679687500e+00) (20, -7.12358951568603515625e+00) (21, -1.56483840942382812500e+00) (22, 6.80257749557495117188e+00) (23, -7.16054725646972656250e+00) (24, 6.76594734191894531250e+00) (25, -4.43105220794677734375e+00) (26, 1.10974693298339843750e+00) (0, 6.48175621032714843750e+00) (1, 2.19203901290893554688e+00) (2, 6.61953020095825195312e+00) (3, 2.08201384544372558594e+00) (4, 4.86371338367462158203e-01) (5, -2.58226070404052734375e+01) (6, -3.19204759597778320312e+00) (7, -2.59787044525146484375e+01) (8, 4.61627483367919921875e-01) (9, 1.66342468261718750000e+01) (10, -2.58811969757080078125e+01) (11, 3.17207837104797363281e+00) (12, 4.82168674468994140625e-01) (13, 4.63550209999084472656e-01) (14, 2.26263499259948730469e+00) (15, 6.55748367309570312500e+00) (16, 3.91394882202148437500e+01) (17, 2.23010969161987304688e+00) (18, 1.48703122138977050781e+00) (19, -7.36631870269775390625e+00) (20, 3.09077167510986328125e+00) (21, 2.20569300651550292969e+00) (22, -2.59834651947021484375e+01) (23, 3.16824913024902343750e+00) (24, -1.53508625030517578125e+01) (25, 3.91673202514648437500e+01) (26, 5.23259937763214111328e-01) (0, -6.98628711700439453125e+00) (1, -3.36517691612243652344e+00) (2, -7.08737468719482421875e+00) (3, -1.57954525947570800781e+00) (4, -1.58378586173057556152e-01) (5, 6.92559289932250976562e+00) (6, 6.65507841110229492188e+00) (7, 6.83054113388061523438e+00) (8, 5.87686347961425781250e+00) (9, -1.08161725997924804688e+01) (10, 6.91919517517089843750e+00) (11, -7.11264514923095703125e+00) (12, -1.09630331397056579590e-01) (13, -2.22037076950073242188e-01) (14, -1.48997449874877929688e+00) (15, -7.13574886322021484375e+00) (16, -4.36026716232299804688e+00) (17, -1.46940338611602783203e+00) (18, -1.64917087554931640625e+00) (19, 6.78061103820800781250e+00) (20, -7.08326339721679687500e+00) (21, -1.50002169609069824219e+00) (22, 6.73304939270019531250e+00) (23, -7.14754295349121093750e+00) (24, 6.78116130828857421875e+00) (25, -4.30750417709350585938e+00) (26, 7.80901730060577392578e-01) (0, 6.66523647308349609375e+00) (1, 2.18423080444335937500e+00) (2, 6.76632356643676757812e+00) (3, 2.22010612487792968750e+00) (4, 5.33079683780670166016e-01) (5, -2.00872364044189453125e+01) (6, -3.25581359863281250000e+00) (7, -2.58201961517333984375e+01) (8, 3.49439799785614013672e-01) (9, 3.90701599121093750000e+01) (10, -2.59714870452880859375e+01) (11, 3.12506198883056640625e+00) (12, 5.04902005195617675781e-01) (13, 4.95516717433929443359e-01) (14, 1.48830425739288330078e+00) (15, 6.72876691818237304688e+00) (16, 3.90504455566406250000e+01) (17, 1.52536153793334960938e+00) (18, 1.55762708187103271484e+00) (19, -7.72653722763061523438e+00) (20, 3.22878932952880859375e+00) (21, 1.55643737316131591797e+00) (22, -2.59405498504638671875e+01) (23, 6.57834625244140625000e+00) (24, -1.53358249664306640625e+01) (25, 3.90750503540039062500e+01) (26, 5.66110849380493164062e-01) (0, -7.15824413299560546875e+00) (1, -3.44223403930664062500e+00) (2, -7.12097549438476562500e+00) (3, -1.61226499080657958984e+00) (4, -3.68890345096588134766e-01) (5, 6.88418388366699218750e+00) (6, 6.62227201461791992188e+00) (7, 6.92817640304565429688e+00) (8, 5.08346271514892578125e+00) (9, -1.07869310379028320312e+01) (10, 6.75306463241577148438e+00) (11, -7.14883518218994140625e+00) (12, 7.05417037010192871094e-01) (13, -3.83147060871124267578e-01) (14, -1.61645603179931640625e+00) (15, -7.13880729675292968750e+00) (16, -4.32858896255493164062e+00) (17, -1.56391835212707519531e+00) (18, -1.26219010353088378906e+00) (19, 6.75909233093261718750e+00) (20, -7.06682014465332031250e+00) (21, -1.53422379493713378906e+00) (22, 6.85972642898559570312e+00) (23, -7.02744960784912109375e+00) (24, 6.80737733840942382812e+00) (25, -4.40611505508422851562e+00) (26, 1.01198887825012207031e+00) (0, 6.65695190429687500000e+00) (1, 2.10065817832946777344e+00) (2, 6.49017667770385742188e+00) (3, 2.20155239105224609375e+00) (4, 4.77550089359283447266e-01) (5, -2.00935611724853515625e+01) (6, -3.10796833038330078125e+00) (7, -2.59084453582763671875e+01) (8, 3.45679521560668945312e-01) (9, 7.08923768997192382812e+00) (10, -2.58925457000732421875e+01) (11, 3.17591714859008789062e+00) (12, 6.16637587547302246094e-01) (13, 1.61771631240844726562e+00) (14, 2.19699645042419433594e+00) (15, 6.65743255615234375000e+00) (16, 1.67417583465576171875e+01) (17, 2.24299883842468261719e+00) (18, 2.13065886497497558594e+00) (19, -7.31358432769775390625e+00) (20, 3.15413784980773925781e+00) (21, 2.23495435714721679688e+00) (22, -2.59448871612548828125e+01) (23, 3.18445825576782226562e+00) (24, -1.54648342132568359375e+01) (25, 1.67756805419921875000e+01) (26, 4.74217653274536132812e-01) (0, -7.16715908050537109375e+00) (1, -3.37695598602294921875e+00) (2, -7.11147975921630859375e+00) (3, -1.65817534923553466797e+00) (4, 8.03958714008331298828e-01) (5, 6.81010723114013671875e+00) (6, 6.64709520339965820312e+00) (7, 6.91349601745605468750e+00) (8, 3.02337908744812011719e+00) (9, -1.07684316635131835938e+01) (10, 6.88622951507568359375e+00) (11, -7.16669082641601562500e+00) (12, 8.47191512584686279297e-01) (13, -1.73490747809410095215e-01) (14, -1.55536723136901855469e+00) (15, -7.11623287200927734375e+00) (16, -1.07819719314575195312e+01) (17, -1.59464383125305175781e+00) (18, -1.32523810863494873047e+00) (19, 6.66357469558715820312e+00) (20, -7.14540195465087890625e+00) (21, -1.53325462341308593750e+00) (22, 6.83567285537719726562e+00) (23, -7.15694618225097656250e+00) (24, 6.73369455337524414062e+00) (25, -1.07803392410278320312e+01) (26, 8.10074031352996826172e-01) (27, -1.77727365493774414062e+00) (28, 1.43267583847045898438e+00) (29, 1.36980450153350830078e+00) (30, 1.44793570041656494141e+00) (31, 6.69370830059051513672e-01) (32, 1.43647694587707519531e+00) (33, 1.50957345962524414062e+00) (34, -1.74529838562011718750e+00) (35, 1.50060927867889404297e+00) (36, -1.80306172370910644531e+00) (37, 1.56283593177795410156e+00) (38, -1.70863723754882812500e+00) (39, 1.50681555271148681641e+00) (40, -2.92009115219116210938e-01) (27, 1.48728048801422119141e+00) (28, -1.22733020782470703125e+00) (29, -1.21323180198669433594e+00) (30, -1.21217703819274902344e+00) (31, -4.91993904113769531250e-01) (32, -1.15634727478027343750e+00) (33, -1.15291476249694824219e+00) (34, 3.41922211647033691406e+00) (35, -1.18342661857604980469e+00) (36, 3.36442375183105468750e+00) (37, -1.21319842338562011719e+00) (38, 3.41166830062866210938e+00) (39, -1.18881082534790039062e+00) (40, 3.32206457853317260742e-01) 
